digraph Tree {
node [shape=box, style="filled, rounded", color="black", fontname=helvetica] ;
edge [fontname=helvetica] ;
0 [label=<trump &le; 0.056<br/>entropy = 0.975<br/>samples = 2284<br/>value = [932, 1352]<br/>class = real>, fillcolor="#399de54f"] ;
1 [label=<trumps &le; 0.162<br/>entropy = 0.932<br/>samples = 852<br/>value = [556, 296]<br/>class = fake>, fillcolor="#e5813977"] ;
0 -> 1 [labeldistance=2.5, labelangle=45, headlabel="True"] ;
2 [label=<trump &le; 0.051<br/>entropy = 0.708<br/>samples = 689<br/>value = [556, 133]<br/>class = fake>, fillcolor="#e58139c2"] ;
1 -> 2 ;
3 [label=<trump &le; 0.014<br/>entropy = 0.303<br/>samples = 407<br/>value = [385, 22]<br/>class = fake>, fillcolor="#e58139f0"] ;
2 -> 3 ;
4 [label=<the &le; 0.052<br/>entropy = 0.964<br/>samples = 18<br/>value = [11, 7]<br/>class = fake>, fillcolor="#e581395d"] ;
3 -> 4 ;
5 [label=<cities &le; 0.198<br/>entropy = 0.918<br/>samples = 9<br/>value = [3, 6]<br/>class = real>, fillcolor="#399de57f"] ;
4 -> 5 ;
6 [label=<entropy = 0.811<br/>samples = 8<br/>value = [2, 6]<br/>class = real>, fillcolor="#399de5aa"] ;
5 -> 6 ;
7 [label=<entropy = 0.0<br/>samples = 1<br/>value = [1, 0]<br/>class = fake>, fillcolor="#e58139ff"] ;
5 -> 7 ;
8 [label=<represent &le; 0.27<br/>entropy = 0.503<br/>samples = 9<br/>value = [8, 1]<br/>class = fake>, fillcolor="#e58139df"] ;
4 -> 8 ;
9 [label=<entropy = 0.0<br/>samples = 8<br/>value = [8, 0]<br/>class = fake>, fillcolor="#e58139ff"] ;
8 -> 9 ;
10 [label=<entropy = 0.0<br/>samples = 1<br/>value = [0, 1]<br/>class = real>, fillcolor="#399de5ff"] ;
8 -> 10 ;
11 [label=<trump &le; 0.046<br/>entropy = 0.236<br/>samples = 389<br/>value = [374, 15]<br/>class = fake>, fillcolor="#e58139f5"] ;
3 -> 11 ;
12 [label=<entropy = 0.0<br/>samples = 192<br/>value = [192, 0]<br/>class = fake>, fillcolor="#e58139ff"] ;
11 -> 12 ;
13 [label=<aid &le; 0.153<br/>entropy = 0.388<br/>samples = 197<br/>value = [182, 15]<br/>class = fake>, fillcolor="#e58139ea"] ;
11 -> 13 ;
14 [label=<entropy = 0.353<br/>samples = 195<br/>value = [182, 13]<br/>class = fake>, fillcolor="#e58139ed"] ;
13 -> 14 ;
15 [label=<entropy = 0.0<br/>samples = 2<br/>value = [0, 2]<br/>class = real>, fillcolor="#399de5ff"] ;
13 -> 15 ;
16 [label=<the &le; 0.035<br/>entropy = 0.967<br/>samples = 282<br/>value = [171, 111]<br/>class = fake>, fillcolor="#e5813959"] ;
2 -> 16 ;
17 [label=<hillary &le; 0.095<br/>entropy = 0.998<br/>samples = 226<br/>value = [119, 107]<br/>class = fake>, fillcolor="#e581391a"] ;
16 -> 17 ;
18 [label=<will &le; 0.196<br/>entropy = 1.0<br/>samples = 209<br/>value = [102, 107]<br/>class = real>, fillcolor="#399de50c"] ;
17 -> 18 ;
19 [label=<entropy = 0.996<br/>samples = 200<br/>value = [93, 107]<br/>class = real>, fillcolor="#399de521"] ;
18 -> 19 ;
20 [label=<entropy = 0.0<br/>samples = 9<br/>value = [9, 0]<br/>class = fake>, fillcolor="#e58139ff"] ;
18 -> 20 ;
21 [label=<entropy = 0.0<br/>samples = 17<br/>value = [17, 0]<br/>class = fake>, fillcolor="#e58139ff"] ;
17 -> 21 ;
22 [label=<the &le; 0.145<br/>entropy = 0.371<br/>samples = 56<br/>value = [52, 4]<br/>class = fake>, fillcolor="#e58139eb"] ;
16 -> 22 ;
23 [label=<entropy = 0.0<br/>samples = 32<br/>value = [32, 0]<br/>class = fake>, fillcolor="#e58139ff"] ;
22 -> 23 ;
24 [label=<trump &le; 0.056<br/>entropy = 0.65<br/>samples = 24<br/>value = [20, 4]<br/>class = fake>, fillcolor="#e58139cc"] ;
22 -> 24 ;
25 [label=<entropy = 0.837<br/>samples = 15<br/>value = [11, 4]<br/>class = fake>, fillcolor="#e58139a2"] ;
24 -> 25 ;
26 [label=<entropy = 0.0<br/>samples = 9<br/>value = [9, 0]<br/>class = fake>, fillcolor="#e58139ff"] ;
24 -> 26 ;
27 [label=<entropy = 0.0<br/>samples = 163<br/>value = [0, 163]<br/>class = real>, fillcolor="#399de5ff"] ;
1 -> 27 ;
28 [label=<hillary &le; 0.069<br/>entropy = 0.831<br/>samples = 1432<br/>value = [376, 1056]<br/>class = real>, fillcolor="#399de5a4"] ;
0 -> 28 [labeldistance=2.5, labelangle=-45, headlabel="False"] ;
29 [label=<donald &le; 0.112<br/>entropy = 0.789<br/>samples = 1366<br/>value = [323, 1043]<br/>class = real>, fillcolor="#399de5b0"] ;
28 -> 29 ;
30 [label=<the &le; 0.051<br/>entropy = 0.894<br/>samples = 866<br/>value = [269, 597]<br/>class = real>, fillcolor="#399de58c"] ;
29 -> 30 ;
31 [label=<us &le; 0.212<br/>entropy = 0.834<br/>samples = 728<br/>value = [193, 535]<br/>class = real>, fillcolor="#399de5a3"] ;
30 -> 31 ;
32 [label=<trump &le; 0.086<br/>entropy = 0.859<br/>samples = 682<br/>value = [193, 489]<br/>class = real>, fillcolor="#399de59a"] ;
31 -> 32 ;
33 [label=<entropy = 0.818<br/>samples = 621<br/>value = [158, 463]<br/>class = real>, fillcolor="#399de5a8"] ;
32 -> 33 ;
34 [label=<entropy = 0.984<br/>samples = 61<br/>value = [35, 26]<br/>class = fake>, fillcolor="#e5813942"] ;
32 -> 34 ;
35 [label=<entropy = 0.0<br/>samples = 46<br/>value = [0, 46]<br/>class = real>, fillcolor="#399de5ff"] ;
31 -> 35 ;
36 [label=<be &le; 0.232<br/>entropy = 0.993<br/>samples = 138<br/>value = [76, 62]<br/>class = fake>, fillcolor="#e581392f"] ;
30 -> 36 ;
37 [label=<for &le; 0.173<br/>entropy = 0.983<br/>samples = 132<br/>value = [76, 56]<br/>class = fake>, fillcolor="#e5813943"] ;
36 -> 37 ;
38 [label=<entropy = 0.958<br/>samples = 116<br/>value = [72, 44]<br/>class = fake>, fillcolor="#e5813963"] ;
37 -> 38 ;
39 [label=<entropy = 0.811<br/>samples = 16<br/>value = [4, 12]<br/>class = real>, fillcolor="#399de5aa"] ;
37 -> 39 ;
40 [label=<entropy = 0.0<br/>samples = 6<br/>value = [0, 6]<br/>class = real>, fillcolor="#399de5ff"] ;
36 -> 40 ;
41 [label=<the &le; 0.17<br/>entropy = 0.494<br/>samples = 500<br/>value = [54, 446]<br/>class = real>, fillcolor="#399de5e0"] ;
29 -> 41 ;
42 [label=<president &le; 0.32<br/>entropy = 0.397<br/>samples = 458<br/>value = [36, 422]<br/>class = real>, fillcolor="#399de5e9"] ;
41 -> 42 ;
43 [label=<breaking &le; 0.166<br/>entropy = 0.368<br/>samples = 453<br/>value = [32, 421]<br/>class = real>, fillcolor="#399de5ec"] ;
42 -> 43 ;
44 [label=<entropy = 0.345<br/>samples = 450<br/>value = [29, 421]<br/>class = real>, fillcolor="#399de5ed"] ;
43 -> 44 ;
45 [label=<entropy = 0.0<br/>samples = 3<br/>value = [3, 0]<br/>class = fake>, fillcolor="#e58139ff"] ;
43 -> 45 ;
46 [label=<of &le; 0.129<br/>entropy = 0.722<br/>samples = 5<br/>value = [4, 1]<br/>class = fake>, fillcolor="#e58139bf"] ;
42 -> 46 ;
47 [label=<entropy = 0.0<br/>samples = 4<br/>value = [4, 0]<br/>class = fake>, fillcolor="#e58139ff"] ;
46 -> 47 ;
48 [label=<entropy = 0.0<br/>samples = 1<br/>value = [0, 1]<br/>class = real>, fillcolor="#399de5ff"] ;
46 -> 48 ;
49 [label=<of &le; 0.225<br/>entropy = 0.985<br/>samples = 42<br/>value = [18, 24]<br/>class = real>, fillcolor="#399de540"] ;
41 -> 49 ;
50 [label=<donald &le; 0.134<br/>entropy = 0.949<br/>samples = 38<br/>value = [14, 24]<br/>class = real>, fillcolor="#399de56a"] ;
49 -> 50 ;
51 [label=<entropy = 0.918<br/>samples = 12<br/>value = [8, 4]<br/>class = fake>, fillcolor="#e581397f"] ;
50 -> 51 ;
52 [label=<entropy = 0.779<br/>samples = 26<br/>value = [6, 20]<br/>class = real>, fillcolor="#399de5b3"] ;
50 -> 52 ;
53 [label=<entropy = 0.0<br/>samples = 4<br/>value = [4, 0]<br/>class = fake>, fillcolor="#e58139ff"] ;
49 -> 53 ;
54 [label=<clinton &le; 0.26<br/>entropy = 0.716<br/>samples = 66<br/>value = [53, 13]<br/>class = fake>, fillcolor="#e58139c0"] ;
28 -> 54 ;
55 [label=<savages &le; 0.22<br/>entropy = 0.239<br/>samples = 51<br/>value = [49, 2]<br/>class = fake>, fillcolor="#e58139f5"] ;
54 -> 55 ;
56 [label=<debate &le; 0.189<br/>entropy = 0.141<br/>samples = 50<br/>value = [49, 1]<br/>class = fake>, fillcolor="#e58139fa"] ;
55 -> 56 ;
57 [label=<entropy = 0.0<br/>samples = 49<br/>value = [49, 0]<br/>class = fake>, fillcolor="#e58139ff"] ;
56 -> 57 ;
58 [label=<entropy = 0.0<br/>samples = 1<br/>value = [0, 1]<br/>class = real>, fillcolor="#399de5ff"] ;
56 -> 58 ;
59 [label=<entropy = 0.0<br/>samples = 1<br/>value = [0, 1]<br/>class = real>, fillcolor="#399de5ff"] ;
55 -> 59 ;
60 [label=<donald &le; 0.167<br/>entropy = 0.837<br/>samples = 15<br/>value = [4, 11]<br/>class = real>, fillcolor="#399de5a2"] ;
54 -> 60 ;
61 [label=<entropy = 0.0<br/>samples = 7<br/>value = [0, 7]<br/>class = real>, fillcolor="#399de5ff"] ;
60 -> 61 ;
62 [label=<in &le; 0.119<br/>entropy = 1.0<br/>samples = 8<br/>value = [4, 4]<br/>class = fake>, fillcolor="#e5813900"] ;
60 -> 62 ;
63 [label=<donald &le; 0.18<br/>entropy = 0.918<br/>samples = 6<br/>value = [2, 4]<br/>class = real>, fillcolor="#399de57f"] ;
62 -> 63 ;
64 [label=<entropy = 0.0<br/>samples = 3<br/>value = [0, 3]<br/>class = real>, fillcolor="#399de5ff"] ;
63 -> 64 ;
65 [label=<entropy = 0.918<br/>samples = 3<br/>value = [2, 1]<br/>class = fake>, fillcolor="#e581397f"] ;
63 -> 65 ;
66 [label=<entropy = 0.0<br/>samples = 2<br/>value = [2, 0]<br/>class = fake>, fillcolor="#e58139ff"] ;
62 -> 66 ;
}
